0.4452805952861423
0.05904864037484112
0.07344207508488118
-0.028837516167430417
-0.102217816237156
-0.003688809983366022
-0.0037022304899190415
0.2575372107056839
0.10043031508660698
0.07674755679975435
0.10262543029996464
0.2244324955640615
-0.07581583441585402
0.054306060729384785
0.03599018648727099
0.07120211113937538
-0.06769972920765455
0.17697424684200405
-0.211349280486708
0.2967942346624621
0.06619643219823675
0.11024219228453802
-0.07815738433343879
-0.41464923314145485
0.03527722252338991
0.3327580836299603
-0.0999585647657858
0.13383823376084203
0.0615306005056764
0.06248552709277456
-0.05592672545660539
0.08328705514925866
0.11980636041637407
0.06656106494427765
0.11879352352656335
-0.040022811664950475
0.10664331947202321
-0.04157566548687116
0.15839765080439272
-0.1696957275304882
0.21289220961136168
-0.04122834423854504
-0.11486990251390669
-0.04829305675614634
0.016646966337701716
0.025125238019782396
0.11988102657577683
0.023769722066336083
-0.043652041094457354
-0.006686076196764379
0.013532986926497279
0.0
0.06002882874570146
-0.0827200419939662
0.06602008841677794
0.01815113552271546
-0.09190028622925532
0.18847955544907788
0.019447311306739254
-0.016164087595561885
-0.17647280679225513
0.4886985670889308
-0.06400751924229435
0.0014799111796128805
0.28361090129286476
0.15924953649064597
0.03624256245540453
-0.036180948015914816
-0.07204521467239317
0.09227455738369647
-0.2287699387240001
-0.2930077316900551
-0.04539211129272972
-0.06944562590654395
-0.4860854271940615
0.4220931732517224
-0.0492922531834992
-0.19178161318732037
0.05788706965045243
0.01616244381423877
-0.04898843527263782
-0.2480264163939771
0.027242938507255565
0.3320806555941898
0.015094559857225787
-0.04948805629791324
-0.07501950135096884
-0.13029574279291087
-0.4032804324312858
0.12301993228307277
-0.007274368540359283
-0.03287269452485084
0.07524617035919534
-0.10845495175633164
-0.09586339342975506
-0.19270778203629513
-0.2545384070271534
0.035870534933254074
-0.05451482572667332
-0.04377998105092194
-0.05768975654018114
0.07816866826383763
-0.12038755825463429
-0.00996747187987274
-0.03921623651973513
0.19859241050222842
-0.04764835797977293
-0.052790359265260434
0.0667465464253356
0.05901152451670279
-0.3942758767199248
-0.03249135668988789
0.01552925611743837
0.0014948477352831695
-0.05776478499298226
-0.16996768475683777
-0.23429324314117395
0.09993405635907772
0.053526634767100116
0.03794501048791964
0.2914359206627793
-0.14766221744705055
-0.10589406137307349
0.045484251305789404
-0.1466819362384171
0.013035034214916337
-0.1564903450351597
-0.05008009033202191
-0.1155894803804414
1.1868275207565547E-4
0.038158618348932596
0.10936738341650033
-0.034129720678435
-0.28332067905601044
-0.29756041534750416
-0.17443891766857347
-0.03196525893592707
-0.019805072489544648
0.08313675953173355
-0.015656494137540403
-0.018608881813016526
0.0121136529739144
0.021606623844482104
-0.042336660969648
-0.03619087764994927
0.25143196252886924
0.124916115019736
-0.43500661190201223
0.07529265888816396
-0.018597401629854377
-0.32952876354976096
-0.12161400124410444
0.008566348681577365
0.11376301743552472
-0.07803645923298286
-0.06332325774828879
0.8590876657773597
0.03492413628879596
-0.11806103947125623
0.04403317760558146
0.055879168163558625
0.07366581208910129
0.2581271116735103
-0.1071743546139856
-0.06677050711622373
0.19136136529580094
-0.0014515702732403666
-0.159211958790501
-0.03317224044530804
0.08381018700089443
0.04719967361620156
-0.009110030292122347
-0.23375894495310806
-0.055287602933620165
0.8661899277649676
0.24887506764203457
0.3293653602810342
-0.029975727090538834
-0.14488078004345561
-0.18379698758258092
0.06759471004200802
0.1168713204497765
0.07103434859375772
0.13151826017460602
0.014197449784832877
-0.0332670284117906
-0.2887165131859534
0.06489661727619836
-0.09296582124934752
-0.15232429092038752
-0.12988033479953898
0.0024356482973203666
-0.06539739004431502
0.04976418488324775
-0.2644138956723239
0.6585444819913708
-0.018907892764160012
0.05482235126163854
-0.29034886897816437
-0.009990098242036527
0.08469243379732003
0.1318237776357357
-0.0843375796316834
0.0031540038354940926
0.07511072788830749
0.0203507920459361
0.06089209315278799
0.43720428738379397
0.0339069347200097
-0.03174788517340065
0.1938807105417822
-0.2862719562057996
-0.08959691411975892
-0.2324818754195703
-0.04101487374069702
0.05022752257532539
-0.2723521187505965
-0.1431510176043681
0.04209545159726582
0.12967169526843894
-0.05952560095637087
0.08588700664239811
0.021313365264853862
-0.11302469240987395
0.21091173789332343
-0.6383908319567277
0.10611928865475938
0.6600684777320694
-0.05202103089082354
0.1985522550007874
0.04919159733510585
-0.13838782181263204
0.0021204285689724856
0.06745440648836847
0.11037509786523267
-0.11407074487704522
-0.10393222325267226
-0.10724217749596252
0.15402700042390824
-0.05467445556470823
0.023818928185246686
-0.06123511917622028
0.08747811028093982
0.0031540038354940926
0.12957806686452034
0.08562736204479393
0.16324706199510688
0.12566447029255504
0.08560034025121631
-0.004387121042692587
0.08355340470372302
-0.06646123708662556
0.14073575395767604
-0.006634395164588775
0.17835483485996084
0.039962186101543395
-0.003886812399996844
0.12660907024178816
-0.0019713600377021558
-0.11937358238850948
0.21175850918150216
-0.10562627984318691
0.14100034339498238
0.006236807122247629
-0.07539888184494418
0.026386747374535436
-0.12494952321596642
0.04720104335572547
-0.03283543446814335
-0.013125363181964757
-0.010729770449486151
0.2333822608932148
-0.12249159977297425
0.06799394690099209
-8.839626848864945E-4
-0.16862287321110167
-0.012302822529558678
0.521024409122507
0.23908736242337889
-0.118490654277632
0.10881902817948746
-0.288355077179723
-0.04349056694185145
0.08173604213497199
0.12138350624326522
-0.04140654456666767
-0.024121135890734776
-0.031098358823957405
-0.04401401480417217
0.0861395279741581
0.007824028157084238
0.02625129727175877
0.11959225235910695
-0.04962212314111514
-0.0025103421843166236
0.031470422987533025
0.01595757248759231
-0.035866754952585365
1.1423895416837964
-0.09062993118741236
-0.06536210788177776
-0.026460132046349005
-0.25223263482635583
0.04236918518696373
-0.08132713980571828
-0.12749466745343963
-0.20768408033241945
0.0739074525598658
0.08024792960766883
0.08237627723233433
0.08271388609522475
0.5238060743631353
0.030653323122083635
-0.08693820940243582
-0.20757254590481808
0.01157251887343354
-0.02335707973524109
0.11884047357300195
-0.34373370012821924
-0.2318251006992347
0.3410492288144851
0.2737743740066518
0.09789120220268603
-0.1325505357414534
0.0014528707572366716
0.021180187218415535
-0.07773238801714379
-0.054824289814523516
0.08738612568502896
-0.005165209722398847
-0.16257613436613116
-0.041958068199573643
-0.004920845175957903
-0.10250926158374993
-0.05353979611342372
-0.030893936661111135
-0.037208044153787125
0.08245059492466406
0.07538953031816541
-0.07403745496210769
-0.1730306575134434
0.05744049086374728
-0.029331709916687976
-0.06057591337896122
0.04045956489837656
0.004222755591206501
0.07811086195417936
0.05304395321530587
0.03855968103147248
0.05936354565724814
0.10865112098227168
0.02351011549677776
0.5729656484616954
-0.03610816758925961
0.19656090647118749
-0.24156949272196448
0.08901719631420274
0.0028857796629512874
0.054047457069803476
-0.05211705520027317
-0.019427295132907085
0.013415266538059035
-0.1262316042198866
0.05753082274070331
-0.359654011741229
-0.19540204307658057
-0.08195770747141498
0.1287903753305128
0.04638537239255437
0.071130290577027
0.2071254685533122
-0.2542460995720281
-0.058623130947585006
-0.015321844625598996
0.23112187903581588
-0.05094448004492491
-0.15257769924512754
-0.016904339966029885
0.04186477046164135
0.014734644380596717
-0.026777772641671735
-0.05938163264877065
-0.0029532061521275153
0.4783680144098004
-0.07453143061429315
-0.07421632791169123
-0.12938357119911822
-0.0072945423232809985
0.04423029973920451
0.09003164813118653
-0.14350524148312177
0.4504607755590419
0.0031540038354940926
0.2679638146710408
-0.21579729792645796
-5.593302818866289E-4
0.052102725649483136
-0.14801980592982464
-0.15322642646030366
-0.03374684088708226
-0.010417509747589638
-1.351849489560889
-0.11141548847261734
-0.1674233326157978
-0.015646242357738854
0.03473616237261855
0.03154345555252737
0.2055027466694032
0.3968836149640205
-0.053550423573917004
0.11764213681347652
-0.0010877926816194106
0.11457086299257502
0.03271902460677375
-0.04607678632270764
-0.03752991237545589
0.04655449130161506
-0.053033007664445006
-0.09672204266735347
0.006317227215618862
-0.014405287759505912
-0.00590160303862432
0.024248379203645407
-0.05840854373794182
-0.007594747345380209
-0.03836661857983819
-0.09056247379023566
-0.09437012562678652
0.054891882436066165
0.1386421545267999
0.14303303127384692
0.023457586869573478
0.11995761985552766
0.033756792081553716
0.0664750237133615
0.10301114765009911
0.140168048899136
0.10162172346018682
-0.08009763477533109
-0.04809580040923371
-0.0942613780007778
-0.033341938097563195
0.05810568320321038
-0.11887209811282991
-0.12359096068335597
-0.128708940698195
-0.112912433806948
0.023024570710312237
-0.004950279683092319
0.025107115951903416
-0.30635379122707956
0.10091213830290058
-0.10270500529900814
-0.010104496779127965
-0.1497332279537408
0.20322008701268204
-0.18285697524743216
-0.10070239657837059
-0.08316682970440693
-0.028095850263547315
0.06070505488747596
0.20894095553308856
0.1408230062533336
-0.17766628976801224
0.08604801973380774
-0.17510732083477673
-0.0183314728108276
0.03240302327752018
-0.06512690840855756
-0.06936746592932329
0.03390035590306995
-0.16771593941110496
-0.05510618398351153
0.02266523076891769
-0.059308393538257495
-0.017143136169542265
-0.19261426402980525
0.3798728226873819
0.0
0.6573351668479624
0.061844380312304936
-0.46560464982217703
-0.13372177362261692
0.08945892040002303
-0.07361762275929244
-0.009425872980805232
-0.17004527451908724
-0.15451214650400646
0.019154554311373955
-0.20290338824744558
0.30703427495011976
-0.04032376860793609
-0.06496888308735625
-0.08240518673267841
0.026977128271463043
-0.056886763550954435
-0.23105405193606035
-0.3242335047083527
0.0
-0.04857775281351297
0.06377427173305447
0.10913493889486113
-0.05485676003272592
-0.033100775835285756
0.2584197460350558
-0.0379254265683711
0.48500120221778575
-0.040303881816049894
0.13544392115444237
0.04809142189759418
0.06759471004200802
-0.04775885710458497
0.06226620806064549
-0.02436432047888585
0.04901813765224927
0.05099343797595816
0.057614207012961285
-0.041012699714018185
-0.12326582988099423
-0.17537511644185544
0.008547677208876097
0.0
0.08567218755154056
-0.08113236458130817
0.04186269253269551
-0.055552062937984446
0.015457415868491458
-0.10524033636358907
0.10347550460228719
0.10344075277516385
0.478654778964731
-0.1460971170053586
0.011346465934454235
-0.03742864814166272
0.07400223207292973
0.03585572332903052
0.13195620436689995
0.015921255707678623
0.3038311269930317
0.034390395619235195
-0.062271745804739
0.04034013093378381
0.013035034214916337
0.0840915263289236
0.1259763665846267
-0.07588987898548702
0.09262477276989509
0.02613936093766624
-0.13687025486433468
0.0777783893902006
-0.052018374688760784
-0.09689155430524503
-0.028713674675349948
0.10290781071568757
0.07157895436668098
0.11918141910983163
-0.04179146137602789
0.04434647219583786
0.035483569111550525
-0.053981873884574635
-0.21934982499898129
0.036575005276610256
0.0103681857499474
0.003931868621511988
-0.04222115406659831
0.047403627298246896
0.09446972389629939
0.022127889848297517
0.008190146562035022
0.10898715554287222
0.022362242747355383
0.18791944492371626
0.22497999169161803
-0.0174300608947083
0.12014784133610901
0.06596437971999158
-0.03466209588558572
0.03712950102766409
-0.021322407980533215
-0.34378538415690807
-0.09879725866475168
-0.128428626126909
0.058088295508323576
0.07077134893683798
0.1362800231756071
0.11670693017735662
-0.05748526450855882
-0.16322729609338074
0.1369568318292034
0.028699714769925413
-0.09978405517637284
-0.031106318581865425
0.07743455010221052
0.05500504498201306
0.07912007094866777
-0.04735274402267728
0.045535230630494354
-0.16019536182524446
-0.005467957354303128
-0.14465303976411525
-0.07356373931957996
-0.06819640913759183
-0.056749188093134756
0.02860307715871073
0.07767694708927417
-0.10826087015405865
0.3452708165925217
0.041839632125848555
0.036318985160959626
0.052238809264985385
-0.18974799847675358
0.033898681318384194
-0.13112737978746872
-0.028793494881684308
0.16631826219596627
-0.13584759621660394
-0.10185829964476846
0.23496892420058654
0.011822107156705959
0.12740908194963887
0.09320801669070754
0.19452864938215464
0.03973008896874249
0.2630938346788004
0.06759471004200802
0.10463943764770708
-0.15340919738438402
-0.024484281329094422
0.1346791006509621
-0.009269086670844643
0.08039276542250692
0.1753984339499509
0.07058705538458568
-0.22971371313657193
0.0881965469540205
0.05516376359135982
-0.1797234779904401
0.04623943139924214
-0.05601967275330416
-0.39819706508717023
0.30555009626499063
-0.1753745534362008
-0.1730861426583126
0.25328121111563223
-0.06129626647248237
0.18427091217734773
-0.1021606738721309
0.005940199908255918
-0.0502340858731584
0.09745697959160707
-0.10964177599639954
-0.020812272224035314
-0.2994634901601454
0.04235282158920184
-0.058106566086785424
-0.1273084944902781
-0.00944740772707435
5.15759269167371E-4
-0.02123606529312392
-0.05379064182831653
-0.06063079381981443
-0.12004839160474251
-0.008781275137338994
0.1420743917046759
0.05276709442044927
0.0055828540184852905
-0.17158833338533533
-0.013013672510214971
0.1625041736378787
0.17071397982463823
0.08862207660925532
-0.34822757126089454
0.32926371832152557
-0.26196971438487204
-0.06583378322791147
0.07013381639033144
0.05957378062603236
-0.10232568856611371
-0.011418084794102992
-0.045377514408435744
-0.07942718801414733
0.6155585693244204
0.07809587189250208
-0.002309863326075824
-0.049795384559878704
-0.22338238832786633
-0.1010916219689675
0.0904787077437855
-0.15726285227982303
0.041274179071492216
-0.0075224637742029865
-0.0900650767533478
0.15465452999225218
0.029444837053733016
0.16616635224341209
-0.02548446525671765
0.08279326950139534
0.2998990344187376
0.21390070738725514
0.3134866924713422
0.20297695727397816
-0.23842258695843008
-0.2467864008027494
-0.020839254186744385
-0.03284846001731281
-0.017000157212882994
0.07500104480206905
-0.0317776013087688
0.16760720132255483
-0.13519959323988875
0.04382430779196835
0.42631811971829064
-0.03724531676550891
-0.016133082100345482
0.023008781417934988
-0.07654592705670404
-0.06341328700294384
-0.11463790235548849
0.10306202679171082
0.03689385259576271
0.03162453382085259
-0.11012382109938545
0.06441418649110997
0.009705162363815776
0.11714227116296243
-0.09929919476960732
-0.07162978289398712
0.09362565833641967
-0.009996787487874817
0.014903798659143848
0.03746794837547276
0.048727705312408984
-0.1169397399550864
0.0067043271130831335
0.0463514197315287
-0.3905008477898401
0.358862491429223
0.06613040738714654
-0.04623535535005069
0.7299785800890128
0.0030831854224801026
-0.12243391680296874
-0.09093923646792831
-0.0030197435909467426
-0.05630796572893598
-0.1561302952337345
-0.2889204446687231
-0.05432966560667293
-0.13056739656270974
0.021888582414430487
-0.0199942945322247
0.14084869481406137
0.07509582798577653
-0.16717435560518198
0.19687802130595464
-0.07279389920723117
-0.12478364251334605
-0.07244927270201715
-0.19822269989128755
-0.002983677514658506
-0.14275707605804694
-0.04695434138755203
0.11177316913185102
0.2009779022297852
-0.06547309323919574
-0.0664018880272748
0.07562267845255129
0.03910912094108243
0.07881778353743796
0.08839382084234941
0.12735716438805472
0.15127605889439677
0.06368555318938093
0.030542491201967538
0.0031540038354940926
0.6256567362233733
0.013035034214916337
-0.10789889159306333
-0.42470778875517035
0.06513838906629651
0.0693326826960902
0.09339562716816427
0.006496748896367285
-0.07348817059733154
0.09723957562243966
-0.12437316838919057
-0.1743254379976522
0.19625911821137013
0.016498109829658318
-0.04089659819552931
-0.019080414122033634
0.18225180968428786
0.3639468478048831
0.11704129350278232
-0.29295992306579716
0.03938354026072407
-0.11713990206862711
0.3528208260882004
-0.04440123982135844
-1.0147592983688665
0.18747168590882157
-0.06272755927192783
0.18182953505475716
-0.07846498636334931
-0.07095715702423591
-0.06231345008045478
0.020636165152023364
0.0251081255225827
-0.0028086577080108695
-0.10867413630895618
-0.10485283106517686
-0.08944927971213544
-0.04156422301986532
-0.059699019691260825
0.0
-0.006897329199767696
0.5069060682849817
-0.03987074656710915
0.1740971518706716
0.1522918739923111
0.0038295598851907087
-0.08280531223349677
0.1889048631032805
-0.034648319197237515
0.42786102782225066
-0.031949081192640914
-0.27075913854107914
-0.08848744118865104
0.20053847391542975
0.5399844464553141
0.040991670696872505
-0.026546485389292426
0.025982344944548305
-0.1634513177230835
-0.0012868141581981103
-0.025625561200775134
0.07068232641189626
-0.1632049052673684
-0.001243732860430792
-0.016707799468617713
0.2526637926273454
-0.00796589712486468
-0.07145752877716136
-0.04977363840853643
-0.031030044724677516
0.010868806806932701
-0.03718151536779853
-0.15023328473836267
-9.819973679599952E-4
0.09545107034795386
-0.0824881731699367
-0.0680586804861538
0.13161467395232054
0.1609337745830101
-0.025035197091338838
0.0049806735398415375
-0.13704095231862262
0.15769614205089377
-0.11196724299597544
-0.06326701145422624
0.2987708886682091
-0.05713967997253409
0.07485958185753842
-0.20126204097586411
-0.033977507327281484
-0.07410092919842987
0.010807396208199262
-0.0513646793157361
-0.0792258754878165
0.44838095166075037
0.046489501621601335
0.049811011974170115
-0.047018576262063336
0.2761097565377283
-0.07199693257399388
-0.2704309388687234
-0.19585009342217033
-0.4514173730706631
-0.17362010518790266
-0.19142532267463677
-0.05409534598404913
0.030129371712983823
-0.13738893660467633
-0.780045005223647
-0.06324842740060484
-0.10784020129587281
0.29980368611424085
0.005605259820272313
-0.05845914639527882
-0.15037665709020734
0.0
-0.09815507364650783
-0.37354939018372674
-0.020786395053724892
-0.10302099172470325
0.022371111711669677
-0.03091417729211383
0.0531426630652378
-0.10248066820070746
-0.13336660651570156
-0.04293833854910058
0.03402552061296578
-0.10130855187425279
-0.13766652396054693
0.107957032858537
-0.08639079522267411
0.02277851935898005
-0.05359840344672139
-0.06573436485793056
-0.028254883766271114
-0.05145209765796433
-0.12287488558020462
-0.14692221733192898
-0.019447878748441328
0.043269298185840285
-0.005994247277248599
-0.10650279139537243
0.01219482064943098
0.13407182220909253
0.07575422876609625
-0.029523819596939987
0.03421098688330364
-0.16480454059791091
-0.03978822703739335
0.15537973977410827
-0.0064784027758883495
0.06016926089623462
0.008708989513664965
-0.559511166616875
0.21204136464837836
0.1952265274802925
-0.1927097021539098
-0.14966035549171294
0.0786827740081587
-0.21482934223863914
0.21241049636255283
-0.030711100627553195
0.044000079897277736
0.06843674558440153
-0.05446416369643637
-0.07471291871054112
0.0683717582218467
-0.18716342476503184
0.05160119920677699
-1.2843710655499217E-4
0.12055927976633092
0.002311251749743245
0.27373355757218554
0.04936314035667493
0.09013201567049133
-0.11576062755799273
-0.0363399303679777
-0.03092893426913125
0.6725803758244493
0.026396261567368937
-0.041888471592624855
-0.07263164816249014
-0.02486403094909223
-0.005627129989331544
0.287318116110647
-0.2207668658512374
-0.46109927886152374
-0.04170078287513141
0.05561141415369385
-0.09346305822399047
-0.04009377156414731
0.19073478734632737
-0.0646187969670011
0.15248424999352894
0.009447821228441072
-0.06160551946288587
0.04282992322170132
-0.015073730275344591
-0.16675089691361897
-0.15810702894783474
0.1110858755397059
-0.09371655050879854
0.4088012182282272
0.13596285532337749
-4.0936316652082674E-4
0.0181507573126912
0.12511383991064712
0.15962580201536516
0.02921201002890518
0.09753857393298662
0.008794725499890172
-0.12595037975246548
-0.13456832120849704
-0.10394261230565559
0.2701058454881055
0.066133026819369
0.12840269566804766
0.34509056452158837
-0.11077720920642926
-0.013106633492247867
0.05521482512439467
0.23105380921562638
0.229637232341169
-0.024268047338159696
0.08292191496130936
-0.10535850803660236
0.11592523428780047
0.04070165808592983
0.013645846648359848
0.019988834762138967
-0.052327151527516276
0.07028731490975025
0.03061818522265844
-0.09022150399176797
0.4839505357261813
-0.00915175423896039
-0.0312876031374364
-0.19456593314114587
-0.08015630748005564
0.007724037575705579
0.30927154904212745
-0.12551599604974326
-0.0951862188226211
0.06557676657854453
-0.08101258499969309
-0.08178914796055621
-0.04642232565431327
0.017487088397057968
0.08800151479601805
0.0781309485430668
0.17681736580793816
0.06507350436859402
0.008998669831763943
0.09593903679191672
-0.03713096557365157
0.044457445781314955
0.01891540855922338
-0.11216838006138
0.04766305274982036
-0.025303884832843643
0.01289488925009351
-0.19462208705758846
-0.06800001937613684
-0.06340776779491882
-0.05725047115759984
-0.14345813627705747
0.018772549212880605
0.04473255352247094
-0.28542837985926317
0.11342726233306098
0.026057779379460154
0.0
0.10321817129626952
0.43272550655791364
-0.09598867225606528
0.1061513824068133
-0.07234187977830335
-0.024211187619877738
0.009991285934061182
-0.047143024158012685
-0.2724337125722562
-0.0652479327384294
0.08859767433602792
-0.24809698800338
-0.3304468874411275
0.3047044196168152
-0.07073706007743116
0.11824945339551059
0.1241995322315329
-0.00810144656442464
-0.11219763412285576
0.20504940763006962
0.2845706265758277
-0.10093863317170913
0.2090619255839133
0.05562331595396462
-0.1944851777600148
-0.00708214561221132
-0.12626157615396952
-0.1663382291235797
0.41796390479778933
-0.05952287599165614
-0.0019688194647807895
-0.32213073260376723
0.45234503030107887
0.07559428972791296
-0.21347311907749122
-0.19611433074908338
0.1509582590649723
-0.4450094048911487
-0.010097584585780053
0.37957523691394285
0.029180786398626875
0.22228899246327172
0.8963552024459587
-0.15769888397884407
-0.04234049731170318
0.10100528886055084
-0.014988323064414976
0.010461322197441092
0.3866886748475845
-0.139745899275094
-0.27573305860477754
0.40091867526093194
-0.5417218744164264
-0.2811900427643943
-0.23416987818019272
0.39644038350340194
-0.2222452314557554
0.09746070232588644
0.11875686518998357
0.26899141574964214
-0.038936445372027485
-0.08405848711389764
0.062283833084840555
-0.004282491431030989
-0.04363670860443935
0.1262889364351729
-0.49521634785636653
-0.19828200729209416
0.30576037756067254
0.0013017314808138275
-0.08169697382992155
0.09833385194766976
-0.00554599745459996
0.057629876161801395
0.10807971578927603
-0.17993776781028872
0.06678964884891904
0.09172440781734012
-0.08474632261226497
0.032994269609192065
0.048910307268130074
0.048910307268130074
0.048910307268130074
0.04258826951281655
0.10448062540867645
0.048910307268130074
0.048910307268130074
0.13286456977313454
0.04258826951281655
0.11455494663275131
0.20234489295583596
0.07084123164306032
0.048910307268130074
0.05099881866589535
0.048910307268130074
0.013247374172816297
0.048910307268130074
-0.009623800760392091
-0.008641302148272781
-0.16731964820295847
-0.16414530970005994
0.0
-0.17431441438446096
0.05094927503373511
-0.08595354836634368
-0.048634736282516876
-0.8561987980941175
-0.04693602467133997
-0.05124815987175237
-0.008465773384401973
0.05364324269131906
-0.04239893660086691
-0.09325126566844368
0.0323012226591588
-0.11803786803534087
-0.6970361333197647
-0.25163929418095243
0.35284219488184937
-0.04702980676610163
-0.09431148188083725
-0.07870949697234891
-0.09662983962878365
-0.12473682195420739
-0.12454100918092391
-0.6875624054144136
0.29340979307981013
0.13705319756624884
-0.019732318125454475
-0.07128749773141776
-0.09498351250599299
-0.04730078724989379
0.34702192235284507
0.31517259336588693
0.004797955462667385
-0.027253609645213193
0.031435437473991835
0.09589702990535763
-0.1901119513685976
-2.628663804230754E-4
-0.18193925357629753
-0.006760331034217016
-0.08299782211577085
-0.1635504885872485
-1.9835982056297057E-4
1.1756735019716076
0.324817453158561
-0.10262513949737054
-0.039768373775576335
-0.016878003061937468
0.0026967693657833115
0.15017765463183336
-0.028086125022713154
-0.006840600829762122
-0.009854164256168942
-0.20406408082855693
0.016436668909729148
-0.25824956230526247
0.4610904035456262
0.1543067100728231
0.03573764695989384
0.004078074234270001
-0.011490635760461729
0.0661922915759914
0.027084098309907517
-0.07064324321172429
-0.4300375109534987
0.18881246253381298
0.0649102091338719
-0.19152809327841383
-0.017511443016667235
-0.04005556001265124
0.04067577354224065
-0.14484458435110975
9.346039669636335E-4
0.08764238526344095
-0.035133233506274605
5.654594272559385E-4
-0.07845953170576801
0.007301673155689867
-0.07337309397286856
0.14371364136600528
-0.10002773931292905
0.05466027405579532
0.021682983394797052
0.5177081082520868
0.03921071232931878
0.1381423090691248
0.1296716963633865
-0.012536933150458224
0.06390506413421335
-0.1038508987965447
0.07126227874153608
-0.2017208063709501
0.16888595535350368
0.07215827408919234
0.2034629610854269
-0.1284772847460215
0.14133393535220495
0.023697866802157554
-0.06444301635696509
-0.04937992421704607
0.0010919486567748755
-0.059185326354974324
0.11301703665768041
0.06388851922878339
0.0
-0.021361720201547564
0.0
0.024067172741796483
0.10613757409569462
-0.30420672729052906
-0.12033225083975053
-0.06374461752064275
-0.003731889851712396
-0.011583582887862357
0.3118024401109372
-0.0839684413822572
0.8984689966729716
-0.11416334264553242
-0.035873083873601365
-0.3381119759784847
0.005862229641954199
-0.14692648044085616
-0.01375621762779451
-0.16178128515819046
0.01730788736986305
-0.039218749619576394
-0.09325907536170262
-0.049973118473018496
-0.04671937702531285
-0.0653565731957747
0.04473993364433054
0.024868939685791423
-0.44641186647784326
0.3325222893341356
0.05168531168559019
-0.004577746945514027
0.1373662795589636
-0.07810236386661451
-0.09307759439348438
-0.2034350546432259
-0.07121768794712381
-0.34750324862137877
0.237416573051258
0.07923636845017201
0.12983799878191685
-0.0275649545237597
-0.03964685092499763
-0.08678248140542276
-0.005892329225436787
0.010728124421167069
0.04194406801599824
0.4147314326007506
0.045823783118858985
-0.14516268502775084
-0.41230312360419263
0.01687992613765401
-0.13394729906851405
0.058297347972870214
0.08510457631739302
-0.04411781890320056
-0.22985642258863734
-0.13354304091690303
0.033770019536784525
0.19910385643712789
-0.1152467264357047
-0.052596834969879575
-0.05605285252997441
-0.05152075694222884
0.2216666272505712
0.04965999589025075
0.037211652291295985
0.3602397988750804
0.0036818515804013046
-0.022141515192611184
-0.1208423771466524
-0.003344932901267854
0.26111665344367296
-0.042289088174284
0.027408449626813308
0.08361756072406583
-0.03339644014556621
0.033737283191381716
0.11351449031922202
-0.1343685587162587
-0.08256747637559736
0.1611364373247091
-0.18288800483488202
-0.018601998454133014
-0.030968160457440518
0.07921051728289662
-0.09412452790675294
-0.06429276138495123
-0.09903818597858309
0.09820209538489212
-0.11127772218124646
0.058417012946731045
-0.02700447486555516
0.0048814973223479195
0.16484282664395958
0.15287398747314712
-0.02965015836363953
0.2656343927473845
0.021534521797349753
0.04146540482471058
-0.08729698780940146
-0.09526307169173581
-0.0715758916412529
0.0031540038354940926
-0.06533461115372821
-0.008594323984767262
-0.015602591054547124
-6.816476209795824E-4
0.014872299388684524
0.023884470466324942
-0.2593424439817275
-0.021992072630140008
-0.5548213546574656
0.04037073644626489
-0.049276797181310124
-0.09230037650145355
0.30770103438785057
0.3344205910610557
-0.018917261364026022
-0.09096096965164191
0.009086723112397624
0.3365134672444267
0.05433726739074766
-0.3444813057102414
-0.025048720445150337
0.030443965812457997
-0.09305956460854707
-0.1589772334921089
0.005109038993499276
0.03579809976454214
0.10881205643823132
0.004551720237935242
0.15472567979527516
0.07372223968134362
-0.06713492728776979
0.00365633389578349
0.0397797055115774
0.021539089542641734
-0.05109398449655601
-0.07285616805280423
-0.2047820016569209
0.11424373657551673
0.1374272760456049
0.06276847939074853
0.2265073303973317
-0.01612018355000878
1.0421146243451584
-0.08128269514309407
0.2595129569264114
-0.1463223964114693
-0.0482687843507043
0.09022953625407983
0.07326807544357396
0.17608226334172136
0.019894335620982168
0.0785395440205002
-0.313899782550937
0.03192138502198839
-0.025668867617426518
-0.2464549739129281
0.1637832530626185
0.08994085446761868
-0.14706226362372007
0.22480951132585789
0.053819706749117756
0.09315738866458338
0.12564332035898693
0.05893246594385092
-0.008324918728581852
-0.24414709639612725
-0.025583317711706206
-0.07199763968987657
0.024036443840202402
-0.27031411894919605
0.2927349680681703
0.027959856606592767
-0.12772663228797812
-0.07396292365396535
-0.00820021148617929
0.04034025419371775
0.0020591838835503076
-0.024660095316322336
-0.047146885089050954
-0.10067031128866075
-0.07251309323045639
-0.5628065633394304
-0.017043940986432925
-0.07105502349117505
-0.3790448648069076
0.15439542974993906
0.14332102023907098
-0.32960895454483674
-0.3370806488386895
-0.026576861742289994
-0.11638527725020738
0.06387944914180461
0.03234482827228749
-0.0917723386639891
-0.10875409551495947
0.07178723797119527
0.22760228572450797
-0.03024615022339708
0.01942997548750478
-0.007676256648453055
-0.5478537228191757
-0.040711017350940855
-0.057611641548435025
0.0066548331559068965
-0.14877730412198167
0.20816118119007215
-0.1426697614395628
-0.11286594089249956
-0.07293910712115512
0.2041728015116423
-0.17555418291957092
0.16223885661666407
0.08159389421632317
-0.017309126129458518
0.21499041471391586
-0.3846225617217752
-0.028417772780012986
0.17178607714152314
0.13869083441315877
-0.13661810893080442
0.009298907548299313
0.08479480456407344
-0.2280891897638268
-0.012639032972680599
-0.16757396738918592
-0.041581631068515444
-0.008991316188999341
0.20727266510324763
-0.4160909882594001
-0.054983910739816205
-0.23128877908508394
-0.013190724442773544
-0.18199741990923604
0.05537985038919086
0.11279144178247642
0.02213830155834858
-0.3297289618608364
0.06692312913843093
-0.5370842394058888
-0.08869516602331745
0.015396621028581373
-0.009681157249779186
-0.03153313261778241
0.24000327104021923
0.24850533385071533
0.28138472967471245
-0.05680377364711838
-0.12134314818693437
-0.08000280734988223
-0.002758414330708832
-0.05717851319024969
0.23145013387278274
-0.09335258743596489
-0.031493580555797145
0.036925166820426694
-0.08524383431128729
0.10851437155682883
-0.16086343565688663
-0.11666896171719038
0.05836522900901235
-0.09145382051205388
0.2979588850401879
0.13876702166158625
-0.17255258246769117
0.24706741784097025
0.08242050388317126
0.01744845668456902
0.24136615862748165
0.10123085744450455
0.009712740237014761
0.17452493437128141
0.030066519568076204
0.044310552394286766
0.039261898376413897
-0.06092652818323937
0.09973657224236764
0.030473495719637953
-0.003724442634680189
-0.07201085471459072
0.03225362877189538
-0.023811350748435885
0.017578426585658877
0.0909279027006706
0.205734363493237
0.0032222488370974457
-0.11732859942219746
0.005603783306960477
0.008273227049376324
0.03981327637794441
-0.20978365224729248
-0.16769564497546952
-0.3456435754080594
-0.05323845988779741
0.13576674538627875
-0.11613026795734963
-0.09912985854313565
-0.005921126306376343
-0.0677916582853824
-0.10233978422391543
-0.022073150191372848
-0.2520755170036354
0.09599706120986841
-0.1415906358154903
-0.05461180174742211
-0.40722201936473634
-0.8069911511737895
-0.049966245315595875
-0.08333560616138119
-0.0653445224307737
-0.07938929595291692
0.2564102653682532
-0.11532859195348012
5.582980830170338E-4
-0.1484573604110717
0.0784190621326058
-0.02362985622446228
-0.13879624672334845
-0.015550750039858107
-0.05125090680507221
-0.07284546140068499
-0.12941111783632925
0.017460509575525595
0.021159282385537825
-0.0706861015392035
0.06264166348054426
-0.0013835770163016252
-0.08397445607820028
-0.0036097424691280706
-0.009145104399822588
0.16193049503738846
-0.154972374541032
0.035513168364720356
0.08590444322625279
-0.062322636262919735
-0.39410662531895163
-0.32087102936968764
0.12101648525337436
-0.11504488161761474
-0.08786670520168788
-0.1987603353329809
0.05050552297022557
-0.02014472697496969
-0.1308145055552411
-0.01279997047157921
-0.09576019097122551
-0.004316759490028491
-0.01259295928689857
-0.04418380550462996
-0.2528576691368344
-0.03556151005894177
0.00936768095575225
-0.08452136962679452
0.1359610518341851
-0.3247633590896597
-0.32767807677658195
0.08863910579522126
0.06135916011022697
-0.27828346404221027
-0.055991857392040545
-0.1613725000169995
0.014766518998283183
0.051725471027435035
-0.024987268201558895
-0.23498035032345505
-0.3131064318278947
0.011179507286125845
-0.1803425015245828
0.015669045374333473
-0.07823612351935655
-0.22047038673541342
-0.031355758412744864
-0.041693369828501164
-0.04032972327289915
0.03768590444387954
-0.12374546310332368
-0.1194680418688368
-0.0021062936762891588
-0.06035706287268026
-0.012959742216947083
-0.1370415438549256
0.04445154622646091
-0.1804580354090525
-0.028978630192083223
-0.058666283677603195
0.2161031847013931
-0.03425843921570427
0.12196532278119537
-0.018761538252594964
-0.20653322207507646
-0.19530886807123193
-0.08953310397289531
-0.04694338544191663
-0.10099481750530225
-0.008954561109163225
-0.0013491897681141484
0.07752360694803043
-0.17929534586290918
-0.009075768113753343
-0.002321403843530126
0.09075743514163584
-0.14103457934032498
-0.03650742068686453
0.029703835173659536
-0.003893280738730616
-0.03640763123903869
-0.09204138024022357
0.41426052312920847
-0.040140878732154925
-0.2635588627250015
-0.549133743376526
-0.6390297544809376
-0.5603398974638353
-0.023129508569749078
-0.067176243314993
-0.020122832600500233
0.0269430187920173
-0.009919054675248956
-0.5044436013034178
0.014028730711522856
0.215234516880897
-0.18015392743384698
-0.3524464078665132
-0.1909062755981258
0.09776504421949317
-0.0029936250114781064
-0.15304213227640118
-0.04180712366138169
-0.2078918746475093
0.0794417661550876
-0.041458503471585244
-0.004397077538806596
-0.11102998304144888
-0.10056943084933483
-0.1372799956411125
-0.24409698214539785
-0.023491194905138877
0.12923040357154508
-0.07962126291000723
-0.17073336304847458
0.04511259797218464
0.04977320205424151
-0.08543215444686889
0.12250290162401162
-0.0864574610824411
0.1664094322094178
-0.15408652836427583
-0.041603358513919275
-0.0015903722922877678
0.2837423486582376
-0.2467644089516389
0.0643942586974943
-0.060110891837137664
-0.2163186689200121
-0.05475212194691837
-0.07045510012169162
0.14410189151933486
-0.09288991553024994
0.03435555725026177
-0.07336208568803686
0.012846251793191248
0.07592400673016556
0.16235942050705085
-0.09160816350136056
0.07819105486804387
0.0445240718713943
0.18903220375715382
0.41032384252646953
-0.015011164218990132
0.01674588976575821
-0.007425740442508768
-0.04007751670203847
0.04515522118563434
0.024817977562260188
0.017336808115753034
-0.005718718071826278
0.25310847624431987
-0.09388722856641671
0.23406988602279816
-0.058214939716403284
-0.27637367924919903
-0.1881593979632931
-0.11628699642756894
-0.1292290956722253
0.010142583285804236
-0.14091923253378127
0.29428564737853535
-0.12562024767349445
0.25661734864161095
0.3219584504315851
-0.2639058119854921
-0.10838912701095645
-0.09234992111916195
0.05506678225045182
0.0
-0.0315916645568903
-0.08142185049234878
-0.09181989466905546
-0.09967805997816379
-0.007860819141612407
0.05166698669545746
-0.02420639675912365
0.13057123364251844
0.4051647992191655
-0.26537132546018816
0.10088107023428393
-0.2817146915894405
-0.2647853804177499
0.04055894950988702
0.25607563275709166
-1.2115410271547042
-0.39946918298276535
0.05289249364146894
0.0531920669967084
-0.07605027406073583
0.016730802101581004
0.0909584259290316
-0.11657011151746705
-0.6414278427021349
-0.10242400086545245
0.021076121699214898
0.03029345424222023
0.10931071209813464
0.004086658575399347
0.047095518519839306
0.14389274137403724
-0.04052363375908211
-0.0224062110178841
-0.048251878394961215
-0.05910998563716263
-0.035064343908053415
-0.07870416092206534
-0.05981278545077919
0.04363968208512819
-0.051949842250002556
-0.40656903919585174
-0.11175401063977537
0.09840998151070104
-0.2680526519476267
-0.06411650992977701
0.023870215000640033
0.7673365463751346
-0.03818108123265265
-0.10113760567222903
0.001506454050008225
-0.012401009288196317
-0.02425292224703531
-0.030207699203416316
-0.1036411454035015
-0.077783736214059
0.3080998645912761
0.013661469981477303
-0.09522826970551776
-0.0907300487945893
0.11954865960394469
-0.07287373829598581
-0.007660527575742918
-0.11517256718548541
0.06782317811094093
0.04307817081643394
-0.14228908107575827
0.04566975472983524
0.003451405454256843
0.0411117513377144
0.43155077590457386
0.0024029387143498673
0.03351618694363918
0.2761974036445573
-0.05436760347761315
0.5572181375103613
-0.12243061435421361
-0.07852217627941799
-0.055949787943456286
-0.12289801508623271
0.1810646326957977
0.17990862873305452
-0.06096142329939541
-0.07078063407790877
-0.24222567881947582
0.05849050682777651
-0.4006517272368937
-0.05816822484457237
0.07947497055511195
-0.23613466630728266
-0.09288590241251189
-0.4287496235410091
-0.06741685195859579
-0.04055527840037439
-0.10022002218032557
0.09939456593495678
-0.05034198508074468
-0.0019293999819560439
0.10237083725257323
0.04045910323220833
-0.10790978625165168
0.05943866001938157
0.12218099228428271
1.0593873083793763
-0.10785282838037802
-0.09760067500276999
0.1733614957778726
-0.023069893064570426
-0.04213330863199328
-0.02172825267992704
0.28134485001882875
0.46187616223477834
0.33413478069149566
0.09896351281062345
0.0
-0.09269133810727839
0.13254902708731434
-0.06729709793393449
0.011986278079403868
0.21223842880021193
0.08671148371491647
-0.06894335899787499
0.03669311629834255
0.35403414992992543
0.02021317455985283
0.06739884725817247
0.0901146886749124
-0.33218738659214464
-0.09728384933442566
-0.14037937850452076
-0.10315546366757158
0.07573178734047283
-1.468180550864334
0.11410820309127545
-0.05493307406516006
-0.0925568009377411
-0.025284548767140924
-0.3036785962142167
0.1130492162085219
-0.014501089933071473
0.36878602683122175
-0.07715958226525509
-0.21811513269682017
-0.0370560627367644
0.33319598715316945
0.1734662082911473
1.1312614825892506
0.2480656591583833
-0.09304766638046039
4.1411037931730617E-4
0.012153176981916394
